0.4467861060617732	0.6514586187302964	0.4031038922848864	-0.41787569576961414	-0.5022540186238093	-0.43152810818927584	-0.3291850036644419	-0.48430923528244885	-0.4053963546622393	-0.5287674765836213	-0.5990719463152325	-0.3999344341166086	-0.4178824848184419	0.19499636714478616	0.6869958098379646	0.49075848317419724	0.7961855916885214	0.5947019425720839	0.4952945919746229	0.2478954608824666	-0.4485296860681577	-0.5871229008822896	-0.6363555686500955	-0.650002117187132	-0.652133868917806	-0.391515286082544	-0.6105647166339796	-0.36544930969216577	0.3017624064370669	0.29765475434460575	0.5005075090004398	0.6858276320504221	0.22864846474116504	0.2392967767085411	0.4276962425105796	0.46455191967807147	0.34665765459161035	-0.6453049611884265	-0.5288044315913926	-0.5734394466033419	-0.4098546448580409	-0.671253677455063	-0.6845104817309271	0.3040760037007228	0.3226260014107159	0.42180483674404795	0.3384128090204259	0.3952564597341717	-0.6099513152491274	0.32234149715359195	0.39345984541649004	0.45752966387225763	0.4441034918134278	0.3621405151680284	-0.5048110124393137	-0.6802183448086103	-0.3908364258207192	-0.6585282824364649	0.5178823590401975	0.4183299855053935	0.5897226134454615	0.2869864543626438	0.5021771764504354	-0.35806973585279933	-0.5423812400565994	-0.6849451316514341	0.3530105105166121	0.4424726575320296	0.6551664127371291	0.46133570456505124	0.22945716540772687	-0.675020376301513	-0.4657009573920707	0.38432327734530386	0.28000808556650725	0.5187774471106797	0.42044361153828097	0.4096034603942846	-0.5820046203736611	-0.6384002498895665	-0.5922615506861466	-0.4577827272740426	-0.40674653334208266	0.5082604903296007	0.30895162146732585	0.6528384835828216	0.30305969290477075	0.19331507929175812	0.19389701333291162	0.37217750187511944	0.5087277361150324	0.3355434534339051	0.3850595379434461	-0.5660407972792858	-0.4827086188751358	-0.6896025297923054	-0.3576719086530462	-0.5719255447216425	-0.3334989717390838	-0.4210087079276286	0.49519486854506756	0.47169936261479	-0.5045524599134101	0.4145432087510008	0.41961500551289843	-0.6351270200215524	0.3299572339310814	0.4037414271690438	-0.34431600849255384	-0.6156659137236753	-0.40936476088433094	-0.3486294756078469	-0.6799533901111645	-0.4348311284770026	-0.42824663770482485	-0.7029908013567079	-0.7007797569485272	0.4250494689980272	0.25766070178392747	0.36075197633468353	0.2556971692908518	0.41768486473429633	0.18730916031455008	-0.6334015963381046	-0.38199800348260105	-0.40925092401520485	-0.6254847218175845	-0.6581722157979468	-0.3886371571651581	-0.48918521235907153	-0.4821273435454823	-0.5909874903616066	-0.4966958696042429	0.1260204090521919	0.4446471130891484	0.2422552933582954	0.24637497167651237	0.19293607234861657	0.2222511791683447	-0.6945186989279668	-0.3754444427273598	-0.6301574238380692	-0.3371001915619712	-0.6798166603911298	-0.6536039810746219	-0.685778555644655	-0.4562356274156785	-0.556714164506195	0.26430962360141036	0.304555510167799	-0.5717843504123028	0.23438083128187473	0.4084534611321578	-0.39131422856453335	0.34454604345863044	0.5159542521031848	-0.5406887733556915	-0.6685745138184482	-0.4553265106439482	-0.6133297543303693	-0.5075182348284715	-0.4257856215544049	-0.4223023387587048	0.5004263370386888	0.3954307582035926	0.5446209562442946	0.3193078785679515	0.1069964619653288	0.300704387791341	0.20850258278922304	0.6520433772547146	0.32737532807987474	0.34758116512464676	-0.494101124730145	-0.37747413291054843	-0.7146266888030879	-0.5255433901172117	-0.6868293361243842	0.4416377126845137	0.2355710872825037	0.6274458633273914	0.3439069114582964	0.38643304172531845	-0.6739708923543406	-0.4553062967193011	0.4512433251346974	0.31887764408376207	0.45178964771110103	0.36326802377992784	0.4389078737500296	-0.7114697083117449	-0.5231187483845422	-0.4901030792349869	0.2306581161861642	0.2911189770201232	0.6588930992361419	0.3513242620819954	0.1951178947280771	-0.5351609217343302	-0.4185560803130575	-0.3642828712570765	-0.6724540318574634	0.2944818927264337	0.47546818850477945	0.5123950063905341	0.5008193155943297	0.20952805192084167	-0.32745255976561255	0.4308842740258532	0.3819328846692952	0.6148651117245372	0.39454544901151783	0.4107065924244613	-0.5530878436228639	-0.6694946207724874	-0.6549988124041799	-0.5662511596806847	-0.6728838509937145	-0.5913438328040905	0.23899249266282727	0.3222306956067972	0.5304356811653832	0.5132335587802299	0.4529225689968049	0.7612177660902569	0.4931279657485878	0.5089092921242491	0.2680836224924878	-0.6308975681538038	-0.4246894620913709	-0.3528205721995251	-0.479117835222299	-0.5859072754624706	-0.5392542873463593	-0.6602557101204121	-0.4985333698240635	0.289381517240626	0.48260320010263974	0.4491530936625747	0.7704791970364	0.4153702686229534	0.7994414800740333	0.32676089170597766	-0.6637914396822002	-0.39276351046567093	-0.5987697313764522	-0.48184269960112114	-0.4114637380614403	-0.3501056309698024	-0.4697241078567123	-0.6054230486425958	-0.6031980284617582	-0.6250855253237626	0.28228242807448667	0.7470581624494776	0.5202856214997303
-0.3675158406631893	-0.7139287729143076	-0.35063355026341264	-0.67629215710424	0.8213334969384636	0.4812576145578716	0.7350984756947926	0.6643265551629058	0.6975849843542712	0.2530551181213303	0.4521151584031945	0.22447961614988388	-0.6323405872525383	-0.6490052504601345	-0.3605501999342026	-0.35558428987992086	-0.5594971120565708	-0.6358358649704754	-0.42734232401426747	0.5283519751172372	0.5904894822796268	0.5035238354882546	0.5254806208131884	0.6231375090788599	0.8166606553184835	0.7668303429927683	0.3693952957944713	0.7636154091152296	0.2663444141513219	-0.4073921834055964	-0.41194973254430167	-0.6215552244356339	-0.492937980193246	-0.33380539381014906	0.185173716378056	0.5445066783633411	0.09719087327203293	0.28636084623436087	-0.4828132758928039	-0.6803254042097777	-0.7059232517397405	-0.5087140592458609	0.41429218267772094	0.24671176970503952	0.8269927112684547	0.26899783053358545	-0.5735755216142069	-0.6231391974872393	-0.37043518214744187	0.36222501491507997	0.8632788676258669	0.25864187225027585	0.78493008215824	0.21775717798000044	-0.6950594833646491	-0.5931486191019713	-0.36041601816632146	-0.35111649962970504	0.3196827239542644	0.7774108435657003	0.24874084671798574	0.739531166718118	0.3193936468872468	-0.6462998081919955	0.18274886497760434	0.827717629497699	0.34478715907526875	0.8649834764238022	0.18772488321166306	-0.4403356645076301	-0.6942436188344421	-0.39964997550699677	-0.7108110974080759	-0.36299045676218644	-0.637592493529328	0.3306590628456379	0.7591668819092671	0.46514419278740876	0.866698879334859	0.2888951614461141	0.4453372732610246	0.37075561666677814	0.4237325137432453	0.2905899907738858	-0.6621938747186022	-0.5537046139077765	-0.6339436556765694	-0.4554109672601676	-0.7015841383482182	-0.41353318321170573	-0.4702864233010384	-0.7190380245126939	0.21970061945558073	0.4973216211028547	0.2839089844916461	0.42463493121226303	0.29373845550480104	0.7494580187304765	-0.46121118931484867	-0.7109717674372993	-0.427324266177232	-0.6788783652720294	-0.48205233584309864	-0.6569228118859989	-0.5614190110530912	-0.60069173909107	-0.5705959978481177	-0.3712256626298497	-0.5077694344396587	-0.5564377977206604	0.6156009001849484	0.3274093990794458	0.6028931871327219	0.8618415340430409	-0.3560550859692895	-0.5830297973347331	-0.5141340994374375	-0.4970091776075111	-0.44509617461177853	-0.6698281252237974	-0.4448786827220962	-0.33916412378988	-0.43560893528011135	-0.6972505638609392	-0.6200547700896657	-0.49474589868140856	0.8734113884080416	0.6530456739576163	0.616693286281431	0.833884281565638	-0.5784341494953853	-0.531768495292092	-0.37332196021424496	-0.3966534614469059	-0.6993677701478993	-0.519307016357907	-0.34979308041694024	-0.6758173958154574	-0.35996784183389186	-0.7169993289832397	-0.6204777668203001	-0.7114671397911265	0.7778382774610973	0.628566628364442	0.5245578724672451	0.7634891251657389	-0.3980011947670644	-0.4341882959226558	-0.45385260184277115	-0.5004352771760873	-0.58702850099922	-0.5072216272426402	-0.4687402768024958	-0.5919768121917766	-0.6346422945205474	-0.5856161326811065	-0.6422997411832791	-0.6319902601029019	0.6612493603494921	0.3692075968445648	0.6076974856188969	0.31962378903782485	0.24984803618342522	0.17003028374436263	-0.3238326446354139	-0.46727285162127125	-0.4541542321369185	-0.5292636594712876	-0.35524643968714953	-0.5399954266424174	-0.33310360235820347	-0.5805476556172515	0.144486551719337	0.534255281241149	0.4093242074727413	0.5460656706333797	0.41202340025442996	0.8285679423645995	0.24844462318427415	0.8701764177773803	0.27778074279103987	-0.701623188486431	-0.593700181614149	-0.6833447480642387	-0.6382927322404441	-0.6838948028916239	-0.6814090811119209	0.46833385054886045	0.7354289402318503	0.5187886536444851	0.8313120453374468	0.35442767347144494	-0.4877106213177024	0.24720940739095495	0.7598752636184959	0.5432450499755324	0.8440703144313587	0.3920830975286814	-0.4259738485920049	-0.447099354774766	-0.5357215807086629	-0.5791084710726868	0.27748739991263294	0.8565683455544468	0.5428808681868782	0.7867310976645434	0.1342124137429381	-0.5762350905679745	-0.3714836937953086	-0.5717016988640364	0.38793753799239084	0.8192511909839968	0.22950512792195635	0.39163472486990614	-0.5548842682486663	-0.47220282114732576	-0.36061431479656275	-0.40995153765112063	0.5078779500399223	0.3275905709243397	0.7632637577750762	0.38320773818677717	-0.6821240284927903	-0.7105666880686974	-0.6655842125252791	-0.6091668483724777	-0.48541018056619306	0.4021122589860721	0.7931196090175344	0.5377820028504372	0.7795440990043847	0.7755972795020971	0.744053973761207	0.7492739531231035	0.359520717143124	0.7776333085214389	0.32193798812663915	-0.6067050710223192	-0.4803213700360211	-0.6119962178096603	-0.526009623593481	-0.6123236808023209	-0.3520268542973646	-0.3877883058756211	0.11967035190421269	0.5718116337034109	0.3138622130341397	0.5632801100500366	0.6113772562067502	0.5657356023093414	0.5485420811684707	0.19270186000430833	-0.5847269918910567	-0.6093933229552311	-0.6436797569787733	-0.4200445195268957
0.02827520564930537	0.2274753413606055	0.19934431745816916	0.28533067694343833	0.1369257247569869	0.20304979287365962	0.29628243725692954	0.09549790250249007	0.0003601467893623145	0.09140155609564982	0.2541255215004971	0.32404288409980725	0.3730474515955192	0.2588217320234341	0.20901307549612375	0.254183722710713	0.2321867603225436	0.20804539997429725	0.18552292499390954	0.248992685178703	0.38227297493449836	0.15049433703502904	0.15119818401126897	0.001884057914200188	0.07141231742757484	0.017254700039553452	0.12704431130478744	0.28571901334011124	0.20927118209411524	0.22586129150502005	0.06823008672966809	0.20730685702360618	0.06217875750038093	0.34308726416049184	0.38318182164395004	0.3776048906354142	0.10100982996133766	0.0726014088029983	0.3881773284266883	0.1888291630301968	0.39783515709194245	0.08767784234488435	0.15937239294337405	0.10351947304331861	0.061240186685027315	0.2861531611360833	0.036250941638585714	0.03456621346868505	0.3402474408026828	0.07119846292017487	0.26580866119407986	0.10573349313583243	0.3976946429799475	0.24084743059198252	0.316892501156533	0.3744225509279043	0.3032381421120447	0.25656871545042315	0.08915315051300246	0.07324289895189451	0.046889689438356544	0.00572862733343178	0.056222653787166135	0.28997142068845677	0.027235146315698035	0.37333677932857784	0.3490565066749566	0.29010387039224556	0.2770376368275894	0.15561932927862474	0.33867645702734306	0.24087372519742162	0.009798272594298309	0.132216807487701	0.34693505633304933	0.12342294254561495	0.0300210784741775	0.1256110381222848	0.38900604989777615	0.034363799848198616	0.2863693607966817	0.0827355260514048	0.36636784447889875	0.3146876721874142	0.1431165346439925	0.17535298056399037	0.3997707800149647	0.3021500064878603	0.04387676335288471	0.09365650208522687	0.36291978013214504	0.28828342549737646	0.1556362560889312	0.2625176262496353	0.12440405379905872	0.22643065657900815	0.3611952632900555	0.18847718930544677	0.3369419961829523	0.3684489564498996	0.3171209412918789	0.1814313277557843	0.20935494929193582	0.2046926168604241	0.023912159891372922	0.21636143334526745	0.36381028839689034	0.31904031536597455	0.14960688225791482	0.1522683195311296	0.166153869107753	0.28648153729122744	0.2305189544649706	0.38153089296620646	0.3566389392277543	0.05601539883117499	0.08700586681836922	0.27255933112427483	0.05612140886914459	0.09816616313135827	0.24922885131200945	0.19746628538486682	0.03429681235344293	0.29752306684127683	0.04043637168947814	0.04446267855628814	0.04190380904222338	0.3201330154630347	0.3514430889954168	0.22873249976140794	0.0409059284927396	0.2861689997434866	0.3067681988550735	0.33943374374056307	0.26771527400948897	0.30433127485748035	0.2601017644154279	0.37304704735736705	0.1544369381867545	0.39282279023981603	0.08427906110930095	0.0012333172944359206	0.1002891460518173	0.36004080731742416	0.13043991151244955	0.19304878696503677	0.07923155160425327	0.11214468211669373	0.31603998501305686	0.13002918985118583	0.07299500117453182	0.017920343581880972	0.10960851336296923	0.011565220807045674	0.24248867554209338	0.32175776752329877	0.1703528343870453	0.29000703940424727	0.3410949065356872	0.04473441818086821	0.2520495113677316	0.09787834857186001	0.062310782231954104	0.398919713533995	0.053615010498080554	0.3463291634631861	0.16728032655719818	0.38969850844911447	0.07642603769744111	0.2867184687278678	0.1738673341157859	0.003997213484157181	0.19290283809605838	0.03694545165675139	0.3089108093972574	0.19139102040781217	0.061312417754686745	0.3440943807583943	0.1193959219570202	0.06778291612037278	0.2388621326467121	0.3998676137789974	0.25584205448971803	0.3932288731842696	0.1943129534647218	0.0029412034870738516	0.2458066990990042	0.2427531810923842	0.08314271946861487	0.33498368749746055	0.38527437552263144	0.3839304249504623	0.24225091540639251	0.15744081742192018	0.11194165003363535	0.07858784254564616	0.14001322889407794	0.00033234162580582095	0.06653643681105544	0.01914747993692889	0.002261654639354749	0.1608347527863351	0.0036832722566827684	0.02300255463304697	0.2814755132617874	0.13072732997957823	0.3274819933054433	0.07617511544500727	0.007978101271024806	0.008276331164042361	0.24919311062079938	0.2867357727710063	0.1409144032885128	0.14264231936939487	0.3317350471072725	0.13120691770330825	0.060072768724417004	0.36489204435681755	0.13626566849365782	0.177004225911266	0.30907566230597333	0.38485942251825755	0.17047034321487803	0.23270007698972714	0.2902010112400192	0.3762755232695152	0.20309402538318394	0.29316800009400396	0.3830857497480575	0.005417869698147282	0.39602602671755033	0.14801463822807248	0.3578226551394782	0.39229856788925616	0.26744968647336104	0.2846886962542055	0.04383675377226606	0.011345688697505808	0.1334294335039766	0.02147360800161451	0.2994301818594243	0.32340652699483735	0.32675859695318776	0.05940631419927911	0.2919019380976012	0.1925123075833414	0.17845746459804568	0.21093570587306246	0.0036653256852169137	0.12158337737662306	0.27633931306315634	0.027275547892281794	0.32039800455688616	0.21298103791025091	0.04213793993428734	0.0858310698545874
