1.0852555506060462	0.9375869829524754	0.7884265145208443	0.48363775046838436	0.8166488938254015	0.6698223519719704	0.6832772187034251	0.550034330136573	0.6334622665725563	0.7620237235184601	0.9861284926283977	0.5912611004076178	0.833063466705189	0.5495976197424249	1.0838223050168936	0.8118440258726927	0.7965850528473056	1.1647080784796993	1.230491541904691	1.0513180827204451	0.957033655545546	0.8373535570723962	0.7671183656796821	1.0730380763149914	0.6977810099527821	0.7194468161242188	0.8982619261799675	1.1548469332181925	0.8804885633510815	1.0957906628017555	0.7357775109672472	1.155834064698197	0.6776057517508232	1.0206308278865697	0.9563621782593383	0.7870445570099182	0.724270693793928	1.0820730242636516	0.6075395903166845	0.790512105523087	0.7917261306259583	0.999236515146176	0.8680205763745106	0.9539844837886655	0.8984113634276455	0.43694226391078145	0.6013645281656217	0.820989881628376	0.6798396328271703	1.007715368046124	-1.2	-1.2	-1.2	-1.2	-1.2	-1.2	-1.2	-1.2	0.5427706867813259	1.1804359671606166	1.005583233888564	0.327646533872495	0.8758943789865374	1.1136372788935176	-1.2	-1.2	-1.2	-1.2	-1.2	-1.2	-1.2	-1.2	-1.2	-1.2	0.8896408477338617	0.915337242292381	0.9104867683529448	0.47821219340748927	-1.2	-1.2	-1.2	-1.2	-1.2	-1.2	-1.2	-1.2	-1.2	-1.2	0.20755426154899165	1.1549131572431655	1.131051286615203	0.9156219578908987	0.5939827213814535	-1.2	-1.2	-1.2	-1.2	-1.2	-1.2	-1.2	-1.2	-1.2	0.9933102812417369	0.3639147038810177	0.8669546788386973	1.1751414706277066	0.8081061301390913	0.6508274639584571	-1.2	-1.2	-1.2	-1.2	-1.2	-1.2	-1.2	-1.2	-1.2	1.1794686904428726	0.6520757465315258	0.8060415201233908	0.8254145078569598	1.0836190181815204	0.9885516764919275	-1.2	-1.2	-1.2	-1.2	-1.2	-1.2	-1.2	-1.2	-1.2	0.9484211855878514	0.7678736769542641	0.7423390163828183	0.7727505283113769	0.9220726595372292	0.8829624612445293	-1.2	-1.2	-1.2	-1.2	-1.2	-1.2	-1.2	-1.2	-1.2	0.6092889471686437	1.2234178321483364	0.7979881400845685	1.1699812834736296	0.9913309932242302	0.6876743874356491	-1.2	-1.2	-1.2	-1.2	-1.2	-1.2	-1.2	-1.2	-1.2	0.923379607542636	0.9452578527073435	0.9966066185575524	1.082052424113292	0.451505514621169	-1.2	-1.2	-1.2	-1.2	-1.2	-1.2	-1.2	-1.2	-1.2	-1.2	0.9863008258769357	0.9413626664929847	0.7977662689728815	0.63445677493723	-1.2	-1.2	-1.2	-1.2	-1.2	-1.2	-1.2	-1.2	-1.2	-1.2	-1.2	0.896784282472074	0.9117508188843835	1.1022110364227984	0.9913588236837307	1.034280415360214	-1.2	-1.2	-1.2	-1.2	-1.2	-1.2	-1.2	-1.2	-1.2	0.6687088673706834	0.9083434549979436	1.0992816971552328	1.1648500739762908	1.0394146687786052	1.185372244859827	1.0510831543111907	0.9434924060565826	1.1142955678875572	0.5068274376386651	0.7963410713817854	0.7267276858757903	0.9801214251839405	0.45289679466928423	0.7905899654610565	0.66072096687132	1.0892489520008037	1.0146301974670286	0.9462122696787775	1.044661328326851	0.6452545210451924	1.0671682636190671	1.2048331988278742	1.0598293995854802	0.8909904451348895	0.6434510502742536	1.0526809226158513	1.0731801717267802	1.2099476940836469	0.8143305516594005	0.8696794520171937	0.636516124345991	0.792124249057734	1.227247622983933	1.1294778543808162	0.9025834504782613	0.6627518470823397	0.8891490908312358	0.6583771494271932	0.994468662799932	1.119509901308341	0.8450048843354474	0.6191498187819662	0.7522843207737143	1.059605043484551	0.5430879300422221	1.0631445720333002	0.993369787018158	1.2121438242740152	0.6107486271234059
-1.0237498892593462	-0.7405854328548087	-1.2	-1.1576713626550568	0.48518251182370864	1.1333701606786437	1.0049754189541893	0.7402416593543324	0.5750635410036111	0.7186550924876774	1.0348733744143797	0.824349899285168	-1.2	-0.9548424828219557	-1.2	-0.7291811428503465	-1.1608735384782851	-1.0441462335227405	-0.8275118973625923	0.7903183485084047	1.0622570898955084	0.5460559853858516	0.6242446363032749	0.670843868890287	0.852189590266425	0.5774536928342477	0.6303633136218076	0.636457188132124	0.7623039256866031	-1.1410040887199373	-0.8960461964440753	-1.094676086042579	-1.0172675791844759	-1.0534077592813507	0.47511691708950676	0.9035405460110235	0.7261297499599814	0.6163542340109182	-1.1531732631101173	-0.8154999212895704	-0.7204329463108605	-1.1220074693707247	0.7013936086959807	0.5518416513453703	0.44222784188706515	0.8222513544669111	-1.2	-1.0753494560726864	-0.9428455570913155	0.9927267239300606	0.7478035286477647	0.9497784709007979	0.4438080927752833	0.9680770158859964	-1.1624350917030557	-1.2	-1.2	-1.2	0.9944469542751546	0.6171569092679297	1.1389902456856715	0.8549717425304566	0.8549533989538508	-1.2	0.1501903229266521	0.4784020268238183	0.482337086302175	0.1166570659027899	0.3055905055344616	-1.2	-1.2	-0.9265673996898216	-0.8615339016968506	-0.9745974896885252	-1.2	1.1449103389000719	0.9665119674268012	0.7034201344581898	0.5162754489244219	0.2042297510370001	0.19383601708049303	0.10475266819082453	0.8912777278092163	0.8753599018055342	-1.2	-1.0807375958724106	-1.2	-1.2	-1.2	-1.04621865253906	-1.0113883884179098	-1.1242060895053256	0.5666931719075791	0.5191998131871497	0.3270500660189108	0.5581200215516021	0.6665470667433868	0.4096449728771899	-1.2	-1.2	-1.2	-0.8918635430603634	-1.2	-1.2	-1.2	-1.2	-1.1057947547288343	-0.8503528588281966	-1.0743005273895816	-1.0518001568133037	0.6892355742901566	0.9505289572748082	1.0445090370143018	0.48189796433479787	-1.1884026461524062	-1.2	-1.2	-0.9568126322401502	-0.8588622280897664	-1.0211366350122173	-1.2	-0.9912838167756688	-1.2	-1.1919879665627238	-0.9956119109307999	-1.2	0.5913931738181346	1.0827590287911175	0.2535944477116894	0.2302666243917089	-1.2	-1.2	-1.0541403061952275	-1.2	-1.2	-1.1177573566433003	-0.7968352760392943	-0.9144825788536102	-1.1065498980031738	-1.2	-1.2	-1.0070412812796081	0.32807390218309707	0.7848503075533468	0.817804618111765	0.8077462721175875	-1.1981998319906468	-1.2	-1.2	-1.1083881949243162	-0.8653802308353262	-1.2	-0.9186669218937924	-1.2	-0.9742683302132005	-1.2	-1.0355738829321268	-0.9955914934243206	0.7556053354079854	0.6848470990215231	0.2803595661776253	0.6891673605130344	0.5987157866435163	0.6408788622014137	-0.7131475017446811	-1.2	-1.2	-0.9306850747527784	-1.2	-1.2	-1.2	-1.2	0.19508558247545912	0.4531002098315669	0.8302284015958723	0.8042991891447391	0.30035426954399946	0.7397815969752356	1.0609867219239504	0.9691624164441887	0.3955257755212071	-1.2	-1.2	-1.2	-1.2	-1.1744098776352065	-1.2	0.5178757127066463	0.47874790375314724	0.3451723573651453	0.7991831947467494	0.9263968146427639	-1.2	0.6792617890749836	0.44100963352487543	0.6579325653614393	0.5339642043957907	0.7783518899743813	-1.2	-0.9655585778513591	-1.2	-1.0227574151020185	1.0069834993818132	0.7143781955124731	0.7891029130896785	0.3297591642430796	1.1062588209908546	-0.7659160475207896	-1.2	-1.2	0.6549128090323242	0.5251251297913653	1.0954936066533865	0.8013950436299632	-0.9985278913658862	-1.2	-0.9502251550947984	-1.2	0.7619551334908459	0.6082596013420805	0.435216439812806	0.6635881119308464	-0.9581457544494141	-0.9078341079635268	-1.1066955031770263	-1.2	-1.1845137455557133	0.7662316871818738	1.061719690930339	0.7730465207207009	0.7169043707003073	1.1606745272258991	0.8322591395516017	0.8744316815006774	1.014443127824016	0.8134328382138296	0.8802756527996766	-0.6979804838599124	-0.787785828145414	-1.2	-1.2	-0.8483707572835564	-0.9095111887903753	-0.9406272828110753	1.018172579564728	0.8304279694353202	0.3513980822050532	0.8324182471468791	0.7942269110661138	1.06981926205338	0.9183564044254933	1.0658838662219112	-1.2	-1.2	-1.2	-1.1737244437243861
-0.8878486606047318	-0.9103521575141007	-0.668327390649545	-0.8599686696394768	0.1402977880684844	0.8317014051497034	0.9850209118100701	0.242909388411782	0.8176907053175977	0.62969022797557	0.7152536554081778	0.7994708487806089	-0.402010214455335	-1.1131136482834243	-0.2655165345627167	-0.34063019137577477	-0.9363747714588682	-0.8378018834787315	-0.9641784995257685	0.16578381680840865	0.6148329685065381	0.9822869427657456	0.5567262541817077	0.5186975836348119	0.5195444531052817	0.411986592156323	0.8161059547985301	0.5557237697536063	0.7500058048095298	-0.8491745654023903	-0.9200309365949018	-0.2981335802383851	-0.7072288708971706	-0.7805365536720397	0.3450105263446177	0.45627027643980517	0.862845711011567	0.6379078757668427	-0.5971287381353483	-1.0327136609975907	-0.7862283257606133	-0.13421736631708764	0.7252516356158263	0.7269166111563193	0.34475714593654516	0.4040420149729082	-0.7581048163900921	-0.46199267735758764	-1.1229769709015314	0.05101633141450995	0.5280043759009638	0.20466584227661014	0.4782714321711036	0.22779897241709546	-0.6926880371334367	-0.6473397259959965	-0.8135186316760945	-0.22924407853067125	0.6397393805289651	0.8319886594756178	0.44991610308253877	0.7524401921741484	0.8862420698527985	-0.8802389510249335	0.462952475910843	0.5933760662883513	0.12556303759436468	0.3752853531432691	0.4726975396929175	-0.36699689571125665	-0.3264941812426675	-0.5855018101035521	-0.15844178393442016	-0.6169902189053058	-0.9800070648715691	0.7182158814217584	0.900628351721141	0.6618636323133235	0.9224177817817535	0.648781658915628	0.33523338440523887	0.2991471139425118	0.407124035576975	0.4188349305486724	-0.9252911397053032	-1.1098687926787723	-0.9743713037921913	-1.073096950586464	-0.8495964374314768	-0.509997565215691	-0.9872434506969119	-0.8100280003205294	0.7963553761500588	0.520479297046912	0.17718266161535642	0.7889442814697314	0.4045403430190325	0.3229602084220231	-0.3457381773124751	-0.9966203664215019	-0.7958236518775321	-0.24336920062642048	-0.17534181513210112	-1.013055245725364	-0.6205139874265202	-1.078881414560027	-0.26000504523292894	-0.7407732748808091	-0.32211645750278606	-0.440893610580553	0.9994207669117916	1.0194930992760087	0.9363283908150711	0.14778661611705998	-0.15177365658758318	-0.5750446524963384	-1.12274668242273	-0.9942821973812395	-0.5572888569186305	-0.9845042522937828	-0.7436816785833755	-0.8200009058081548	-1.008974918275361	-0.536672176943295	-1.0130791237019066	-0.6183366197175346	0.6421725688075537	0.5172547399657005	0.9532310429634571	0.2201463217716284	-0.23884814654952063	-0.5413240632782889	-0.7513457552780913	-0.3402095134151136	-0.30963578476643666	-0.7199049333316514	-0.8661386000033615	-0.27952239605424484	-0.36434623636051794	-0.8706003109905898	-0.8580915678668091	-0.8485283849805363	0.438984102129542	0.5568145397748057	0.8147621115113507	0.35517802475439114	-0.9709483447873786	-0.6917688254369587	-0.14174809044616304	-0.26553971558032835	-0.951640466685568	-0.6186981374484479	-0.533765892107144	-0.746389223827771	-0.3936304451805082	-0.5598806156423667	-1.0096768577146613	-0.37190804284676743	1.0321357576695769	0.6382041863983494	0.9635655807538732	0.35979364974739503	0.1635204699726429	0.6420473516003824	-1.0570873146575186	-0.9551229469488438	-0.2744560955359591	-0.534244850699558	-0.6565737296243164	-0.21418058489533265	-1.0917002433617993	-0.7727120880854972	0.9663732880643585	0.508105634444071	0.40377269620449935	0.9229106477448348	0.3545396743853415	0.5828339597991739	0.07888153515709477	0.48529950463350224	0.4921297563756175	-0.34412410234181207	-0.15427633253674916	-0.5864521555949043	-0.5647482634443037	-0.6572682865746371	-0.3546409345519293	0.6616128508565043	0.9305224284385762	0.27893102579654533	0.5299626169337097	0.4148341454082013	-0.7399384192085439	0.9249489196678967	0.1294799223384528	0.6147842467513549	0.17763681896652808	0.8869143326388885	-0.6425568488760993	-0.8643758098283933	-0.5840852695165548	-0.6588250654979397	0.49788733402248486	0.1721538404509359	0.18320361579364886	0.8265469854697761	0.7459250165543307	-0.4628529184489386	-0.6319752129400757	-0.5080499397675067	0.4166466914385981	0.3585356272599686	0.10006401150001853	0.7725499830087262	-0.678431221681352	-0.35021268827234064	-0.566014774950464	-0.22280814530597198	0.8523132937795194	0.923692234335465	0.09018989490694017	0.5196410829853383	-0.7413109552805404	-0.67819861876168	-0.23385908100082087	-0.6730806938883187	-0.7540697110645298	0.3290653152168246	0.5365874108382255	0.09082683549961285	0.23029866947198585	0.27272631271889153	0.939193177500006	0.24608553477169784	0.17642578260178168	0.5032324423227967	0.5673980720340865	-0.24340501043697804	-0.3593719440897082	-0.4842855628640002	-0.5744759292871664	-0.4736460035958163	-0.3199208688050321	-0.8443699206381328	0.7769376959114312	0.8832864754609197	0.3920634230755506	0.7080400261551099	0.7405471769420634	0.6460252314738342	0.33170089943630654	0.7751538152865997	-0.23872769991647752	-1.0935858425580305	-1.0082626990193144	-0.38887120843958767
0.7980987708443719	1.0628362118059422	0.874050407183611	-1.2	-1.2	-1.2	-1.2	-1.2	-1.2	-1.2	-1.2	-1.2	-1.2	0.15250574286257554	0.6481553779554556	0.5829003025500276	0.7155544998572502	0.6402727610638616	0.4145144247440662	0.627151025171406	-1.2	-1.2	-1.2	-1.2	-1.2	-1.2	-1.2	-1.2	0.6329190808666145	0.6224270746885915	0.9538692144189944	0.5736532484519801	0.297026018490853	0.5445771967845409	0.7842632267225216	0.4640849501871338	0.5521816952170138	-1.2	-1.2	-1.2	-1.2	-1.2	-1.2	0.702124644782198	0.7104363511591184	0.34694547782919755	0.17876712577796497	0.4733428047026357	-1.2	0.07989940728444102	0.8965653212269769	0.14106368064781677	0.9281495889595757	0.8547718427591464	-1.2	-1.2	-1.2	-1.2	0.8781535307928691	0.9631409604834233	0.38885851285476897	0.67226941503957	1.019818230363323	-1.2	-1.2	-1.2	0.2707536458340343	0.2985234125027707	0.33698258147757737	0.6907994086369061	0.14701312036310232	-1.2	-1.2	0.7808077553123512	0.36577348968039186	0.35048834327528816	0.6213293945412317	0.12423951041766201	-1.2	-1.2	-1.2	-1.2	-1.2	0.7377593087120122	0.28585703189073314	0.9864783713680336	0.15870033038573736	0.09739294628416799	0.5023355740830577	0.991892055264067	0.26598926090242947	0.6719416775598962	0.6820326265715377	-1.2	-1.2	-1.2	-1.2	-1.2	-1.2	-1.2	0.5010260323615199	0.6246510045861823	-1.2	1.0634597073928975	0.73626032038251	-1.2	0.4145477435263886	0.3370342114049894	-1.2	-1.2	-1.2	-1.2	-1.2	-1.2	-1.2	-1.2	-1.2	0.7357298071578681	0.3836215510081819	0.675651616991225	0.7954936631689696	0.32585508202962943	0.358709597544428	-1.2	-1.2	-1.2	-1.2	-1.2	-1.2	-1.2	-1.2	-1.2	-1.2	0.7194633998947856	0.2944275746859934	0.8117211551878494	0.6336144849923951	0.8262034575503215	0.9698223560070998	-1.2	-1.2	-1.2	-1.2	-1.2	-1.2	-1.2	-1.2	-1.2	0.5273115722185692	0.9332961604779441	-1.2	0.2805257295084382	0.685748574222951	-1.2	0.6800665912583806	0.21604395633360152	-1.2	-1.2	-1.2	-1.2	-1.2	-1.2	-1.2	0.9473901662664528	0.8054784834650651	0.8230150642466301	0.8617202666534706	0.362766797160265	0.5762273290898369	0.365895336138157	0.6820829899210881	0.8741934793776491	0.10975692844564433	-1.2	-1.2	-1.2	-1.2	-1.2	0.677636175471468	0.6292822371870536	0.9300621662995983	0.28810542614030415	0.9395105318102319	-1.2	-1.2	0.21538702604325533	0.26259187401112094	0.25288067242062046	0.36387204629520825	0.3484524191398769	-1.2	-1.2	-1.2	0.4626090303609446	0.9879877742890312	0.2982959103169514	0.898198391334867	0.3547393882770291	-1.2	-1.2	-1.2	-1.2	0.47933452277625943	0.9485981470659215	0.790664226961028	0.8233520110695006	0.6044292430750082	-1.2	0.6734587041070152	0.9729493329087453	0.5227210141921581	0.44126508670922004	0.28085466702583595	-1.2	-1.2	-1.2	-1.2	-1.2	-1.2	0.47514501352441846	0.8595774921737693	0.9700672079534015	0.48073676026627105	0.8182921672192117	0.9201943600715208	0.856055290545607	0.8412394527733917	0.12964510257979175	-1.2	-1.2	-1.2	-1.2	-1.2	-1.2	-1.2	-1.2	0.4274457371979271	0.7608964009774843	0.588671049214815	0.6545269671929782	0.2920536028059315	0.9386778077768839	0.341780929926393	-1.2	-1.2	-1.2	-1.2	-1.2	-1.2	-1.2	-1.2	-1.2	-1.2	0.28515191048330707	0.741525919842633	0.4743160927331631
