0.4268826236331701	0.6772572614212359	0.545844521146493	-1.2	-1.1671799766264856	-1.2	-1.2	-1.2	-1.125163082547708	-1.2	-1.2	-1.2	-1.2	0.8294010300653403	0.3943586481052275	0.4190363039917107	0.5030519098260273	0.6777803746223289	0.1292108011602396	0.7437308118831837	-1.2	-1.2	-1.2	-1.2	-1.2	-1.2	-1.2	-1.2	0.3499256141022244	0.5992417969515015	0.7803986759624105	0.7249679035831045	0.7283237362209319	0.65594859420894	0.880583207234925	0.4263747127795585	0.30137758638573586	-1.2	-1.2	-1.2	-1.2	-1.2	-1.2	0.39093396846236733	0.09756418209551329	0.47359335826676835	1.000349158412721	0.8259173801311063	-1.2	0.8589074237632343	0.16531205526263038	0.8048363793829234	0.5382987380868982	0.4757407730903223	-1.2	-1.2	-1.2	-1.2	0.4371470149800145	0.3588576787664037	0.2460306082552569	0.58788973689565	0.4507738469765536	-1.2	-1.2	-1.2	0.5485548178726358	0.6589463724715869	0.8437451235161415	0.4443807005397005	0.3241474756351216	-1.2	-1.2	0.8073660827906628	1.0048888238426756	0.8407886999782473	0.8526355949286399	0.9328846785686384	-1.2	-1.2	-1.2	-1.2	-1.2	0.3502236385198686	0.6799997722983764	0.6220144246744517	0.780568276680569	0.6962589167618025	0.1270994404266214	0.7161146517834182	0.6043831465254071	0.4583939845092264	0.1905825871202797	-1.2	-1.2	-1.2	-1.2	-1.2	-1.2	-1.2	0.45113797986911625	0.6867954401898875	-1.2	0.7316710648635361	0.2502811867812946	-1.2	0.8037254445318606	0.9597969814390169	-1.2	-1.2	-1.2	-1.2	-1.2	-1.2	-1.2	-1.2	-1.2	0.7753382303991471	0.9908100458650553	0.5527436314908564	0.7282886888785477	0.19569192260445092	0.4521257213818573	-1.2	-1.2	-1.2	-1.2	-1.2	-1.2	-1.2	-1.2	-1.2	-1.2	0.13526109330854805	0.5004273458353664	0.8932440318846092	0.9621700297219203	0.7112555713252801	0.5696728668597013	-1.2	-1.2	-1.2	-1.2	-1.2	-1.2	-1.2	-1.2	-1.2	0.4279251619191515	0.787317772584109	-1.2	0.467236351630412	0.6547091442883289	-1.2	0.35655725640221925	0.20519326011269146	-1.2	-1.2	-1.2	-1.2	-1.2	-1.2	-1.2	0.9295701235005198	0.34547567985467836	0.8707009615224371	0.308721700118802	0.19775084382678132	0.8797756258234073	0.03158317082267492	0.8081113399533022	0.4975736558431992	0.34448297718290943	-1.2	-1.2	-1.2	-1.2	-1.2	0.4309107051406928	0.8174562491018198	0.5866922666333919	0.3028027638138313	0.5462627468398606	-1.2	-1.2	0.043859748472128035	0.002933603982037347	0.4379624287539585	0.25413282974871976	0.6562586729571624	-1.2	-1.2	-1.2	0.8058649259756647	0.978815959312547	0.9627461812399581	0.4772356631413976	0.8593589913336976	-1.2	-1.2	-1.2	-1.2	0.6093478941824269	0.8378433187378505	0.3951945317717641	0.5930288993280501	0.26932278431513756	-1.2	0.5045595427414016	0.7163976288064228	0.3870297767983005	0.5596518215354046	0.5694452710252255	-1.2	-1.2	-1.1966673322580832	-1.2	-1.2	-1.2	0.6322114405612095	0.3453196075824272	0.19987368612688744	0.8549590019930438	0.9749670337686815	0.8004609771256138	0.4248310256249124	0.8396352862706746	0.8360702751178001	-1.1152497510764396	-1.2	-1.2	-1.2	-1.2	-1.2	-1.1422259421617387	-1.1751391175425465	0.7090915855809514	0.7093184466600787	0.7322370116530971	0.7737521193603116	0.4439729893512514	0.5322410048417153	0.4700524778053249	-1.1064362611951324	-1.2	-1.1815138344652762	-1.2	-1.2	-1.2	-1.2	-1.2	-1.2	-1.2	0.27153838427966603	0.7040124312896578	0.36081215756104984
-1.2	-1.2	-1.2	-1.2	0.7711324009577133	1.0937097071388817	1.0843281231287247	1.1096163714577567	0.958772239380259	0.5756673997863522	0.8490002291000622	0.6788064267821676	-1.2	-1.2	-1.2	-1.2	-1.2	-1.2	-1.2	0.623014892516353	0.31479534495344985	0.9684192159449128	0.8948971016343928	0.46103882269690705	0.9491481316911172	0.9111530674893196	1.0144280844755587	0.647827323180217	0.9098604686588723	-1.2	-1.2	-1.2	-1.2	-1.2	0.2804210680240453	0.8757033547153947	0.9408540331867926	0.45121146057512324	-1.2	-1.2	-1.2	-1.2	0.42359813819651265	0.4261822278939147	0.4967636624032036	0.3183076812460812	-1.2	-1.2	-1.2	0.35540022566624596	0.5709703144997559	0.5860538612879037	1.0048473978876087	0.3655949569187045	-1.2	-1.2	-1.2	-1.2	0.8854113447412016	0.6125972134262534	0.601611930022877	0.935588706795641	0.37133866511062397	-1.2	0.8822031747658968	1.0053912366233746	0.9567356670084634	0.9644014055976513	0.0500388071256567	-1.2	-1.2	-1.2	-1.2	-1.2	-1.2	0.9088402141274893	0.4655499612506108	0.5213436200120808	0.6122804139710204	0.621797502072878	0.9680331360045303	0.24717046994944064	1.0791841086243366	0.12681076447824566	-1.2	-1.2	-1.2	-1.2	-1.2	-1.2	-1.2	-1.2	0.9281527379099377	0.5461765349697674	0.7746606851495714	0.5561979651512341	0.5771708156287161	0.9259472944883953	-1.2	-1.2	-1.2	-1.2	-1.2	-1.2	-1.2	-1.2	-1.2	-1.2	-1.2	-1.2	0.36436561229207365	0.5667398894369006	1.1823467144639894	0.8161694092669056	-1.2	-1.2	-1.2	-1.2	-1.2	-1.2	-1.2	-1.2	-1.2	-1.2	-1.2	-1.2	1.0635228536835888	1.0027594145437628	0.8164713081241952	1.0180991616390247	-1.2	-1.2	-1.2	-1.2	-1.2	-1.2	-1.2	-1.2	-1.2	-1.2	-1.2	-1.2	0.6953485809666063	1.1676793891326254	0.855901337944645	0.934130150798771	-1.2	-1.2	-1.2	-1.2	-1.2	-1.2	-1.2	-1.2	-1.2	-1.2	-1.2	-1.2	1.000407190557355	0.9355932149574941	0.8225217175587972	0.4044776966194008	0.4931912308422174	0.13096966121037332	-1.2	-1.2	-1.2	-1.2	-1.2	-1.2	-1.2	-1.2	0.15268907864988812	0.8699556887999946	0.6668616661271902	0.9265332472759629	0.08517028078350042	0.9722045341677632	0.9217035275112243	0.6213614408223606	0.20759728601922725	-1.2	-1.2	-1.2	-1.2	-1.2	-1.2	0.3288812397647357	0.8127646883888199	0.4843717842641796	0.5327194866574521	0.8272199460058983	-1.2	0.8434370065078339	0.3546600317275591	0.4633191054080435	1.007408393430045	0.4625844721698522	-1.2	-1.2	-1.2	-1.2	0.1468115277673942	0.8706546661718038	0.6397924962241147	0.9505600097499115	0.8522578475062019	-1.2	-1.2	-1.2	0.3174302684820056	0.862016537194896	0.8082005331606911	0.9830517210587556	-1.2	-1.2	-1.2	-1.2	0.8686188557780962	0.9658490091338701	0.38624716976224566	0.20231289244327103	-1.2	-1.2	-1.2	-1.2	-1.2	0.17616646712096198	0.6708748242278203	1.0297976635437995	0.9522121370149406	1.035317834463331	0.7978826649212105	0.6203686933284611	0.9852084738621237	0.9319019853975912	0.4131592804944111	-1.2	-1.2	-1.2	-1.2	-1.2	-1.2	-1.2	0.9586724896241113	0.9889889973017985	0.5826427909073003	1.005448983575785	0.7816619316896082	0.9798762933440557	0.3303680923606364	0.5583705357514073	-1.2	-1.2	-1.2	-1.2
0.9782660590486534	1.138200118982542	0.5906676069191522	0.5636800793229028	0.7286641968098942	0.5955163341813613	1.0913435568208218	0.8092715062613165	0.6173719346547901	0.9586194888661119	0.7155712577684015	0.6929813175380047	1.1826191759270186	1.138907770809371	1.3103425222701057	0.8153436927559722	0.9927681186475041	1.1924783884574515	0.9835175344625459	1.0514603185023472	1.1851263814348816	1.1128718846760446	0.9336647813871971	0.9964244078556841	1.1907071629137977	0.986180042230582	1.2854259538567234	0.9500949831353936	1.214930336166053	1.1015353133246202	1.0651366650303085	1.145902868362426	1.2080846833250867	1.312067770389559	0.9895342115853814	0.7838882771974905	1.1324798472995758	1.0726808468250173	1.0337743967939514	1.2072430358650619	1.201832843225723	1.00947024007639	1.0723720046427245	1.1116539996395536	1.2335935188520815	0.8801915866160144	0.7771124983044756	1.311702752242908	1.0086488248449021	1.1792765780334737	-1.2	-1.2	-1.2	-1.2	-1.2	-1.2	-1.2	-1.2	0.9357898524235073	1.1456116552043638	1.2320449798124786	1.0082419087273515	1.074598737604988	1.0094571808906474	-1.2	-1.2	-1.2	-1.2	-1.2	-1.2	-1.2	-1.2	-1.2	-1.2	0.6869705041330026	1.174414892021021	0.9530028620386372	1.1853406606151295	-1.2	-1.2	-1.2	-1.2	-1.2	-1.2	-1.2	-1.2	-1.2	-1.2	1.161861827151935	1.0820505610373639	1.0636221044912184	1.1116868136878475	0.8325728570869982	-1.2	-1.2	-1.2	-1.2	-1.2	-1.2	-1.2	-1.2	-1.2	0.9242511574937416	0.40021102764562255	1.1871414917803043	1.3540469665284443	1.093274319688809	0.8916656336451917	-1.2	-1.2	-1.2	-1.2	-1.2	-1.2	-1.2	-1.2	-1.2	1.0156151307278056	1.1373595841879447	1.211301108423455	1.0424185029170503	1.3562125987131013	1.066630815962901	-1.2	-1.2	-1.2	-1.2	-1.2	-1.2	-1.2	-1.2	-1.2	0.9238903632672982	1.3530476478205702	1.2467727739155825	0.8796579335071146	1.1229503256501248	1.0288898542466924	-1.2	-1.2	-1.2	-1.2	-1.2	-1.2	-1.2	-1.2	-1.2	0.9943397102039466	1.157478379899332	1.2914099535896693	1.0523020208776694	0.9805133921794035	0.5427031972093291	-1.2	-1.2	-1.2	-1.2	-1.2	-1.2	-1.2	-1.2	-1.2	0.8731603404724251	1.3079811971431616	1.0403166984793748	1.3061995534220738	1.0796427698035156	-1.2	-1.2	-1.2	-1.2	-1.2	-1.2	-1.2	-1.2	-1.2	-1.2	0.8868642539851412	0.8600671769969637	1.1184916851617437	0.6065331297784442	-1.2	-1.2	-1.2	-1.2	-1.2	-1.2	-1.2	-1.2	-1.2	-1.2	-1.2	1.013506081684933	1.1191155811140951	1.1445538527829697	1.3000900309576884	0.9917468165351483	-1.2	-1.2	-1.2	-1.2	-1.2	-1.2	-1.2	-1.2	-1.2	0.8407887935171692	0.837499368871577	1.0835162835343186	1.21312819798668	1.2152650712132405	0.9804806253315467	1.2003650869764493	1.0110917170772782	1.0994308046793366	1.0004352541328403	0.6138504450365353	0.8042124371320347	0.6387666838556888	0.7334694450884504	0.9333819169984622	0.8696988725705512	1.271431860947665	0.8733278031539355	1.2403283920257162	1.0429262821270397	1.1197053993698627	1.039280683846366	1.2834423913213797	0.9724947928194414	1.2370915224036656	0.9717263253038677	1.09511620914064	1.1566737248691137	1.1935492916619574	1.2988808782880013	0.969883285180356	1.038347862338057	1.2265497374314436	1.1638827202360729	0.9494636938859022	1.1144566453201437	1.0013592189670724	0.655836029012163	0.6865553949845061	0.8140764446610713	1.126493726697319	0.7207746825380434	0.7243961084498384	1.1019244995991955	1.2083393486255267	1.0330684785065793	0.5709390434692276	0.9202513652971024	1.2106238805415028	0.6967116004663836
0.5203354503837498	0.5564331290827675	0.8553609991866812	-1.2	-1.2	-1.2	-1.2	-1.2	-1.2	-1.2	-1.2	-1.2	-1.2	0.7963510676698129	0.9337977832928134	0.6021265935538921	0.9829613151928791	0.8547996079923603	0.7063927972427266	1.1075206397887551	-1.2	-1.2	-1.2	-1.2	-1.2	-1.2	-1.2	-1.2	0.73237807228972	0.6104426226251453	0.8885912774301503	1.0626141797362922	0.865776375910179	0.7269518362273435	0.565067628340875	0.323964252020452	0.8323141727235788	-1.2	-1.2	-1.2	-1.2	-1.2	-1.2	0.5251929153011414	0.6871462085039233	0.7120273248617113	0.7920026213333761	0.7955763710674121	-1.2	0.4634264023749442	0.6211137363598097	0.9004151534506402	0.23227073691143718	0.9807498334675631	-1.2	-1.2	-1.2	-1.2	0.3745297937423986	0.960433194087582	0.6569399092637759	0.3308294342820544	0.8724573519837632	-1.2	-1.2	-1.2	0.3718858649818258	0.41322405647351107	0.3585962706270927	0.4902132994034316	0.5714052692878189	-1.2	-1.2	0.8686859071833747	0.6111792787885333	1.1281377072511949	0.6338540434640433	0.5280506894160355	-1.2	-1.2	-1.2	-1.2	-1.2	0.3308623312615886	0.5528294398759485	0.6979145708823373	0.516599753331464	0.8867774793419795	0.9740704051267468	1.016516013868188	0.9231497636917265	0.6779664453905696	0.588807515760539	-1.2	-1.2	-1.2	-1.2	-1.2	-1.2	-1.2	0.21313051560233623	0.7052827012897024	-1.2	0.9067153673154744	1.0380665421740034	-1.2	1.2120452866269666	0.28124142877265035	-1.2	-1.2	-1.2	-1.2	-1.2	-1.2	-1.2	-1.2	-1.2	1.0259148996501317	0.960121506345809	1.0548893956839982	0.524477059935419	0.5818166021345427	0.714574304412897	-1.2	-1.2	-1.2	-1.2	-1.2	-1.2	-1.2	-1.2	-1.2	-1.2	1.0527937959753317	0.6830950223539427	0.6862097324635527	0.9295527239808986	0.539468630640333	0.5453579557869453	-1.2	-1.2	-1.2	-1.2	-1.2	-1.2	-1.2	-1.2	-1.2	0.9171301458696142	0.6046531376366889	-1.2	0.5089343495423644	1.033654129568713	-1.2	0.5628970316210582	0.47189774329545087	-1.2	-1.2	-1.2	-1.2	-1.2	-1.2	-1.2	1.1020060639354048	0.9908860063931095	1.027377245592994	0.6581487074719694	0.3529008186396173	0.3423427853088518	0.36750542256557944	1.0482673899564525	0.9611004700397884	0.6467161894558646	-1.2	-1.2	-1.2	-1.2	-1.2	0.6161985189723909	0.84820073004758	0.4150338266974231	0.42139700317406636	0.45776341772653484	-1.2	-1.2	0.451035447276669	0.8328102745168514	0.5474022930106535	0.42710722087504993	0.5950233628264537	-1.2	-1.2	-1.2	0.6114784774972298	0.536778125300295	0.791280782348177	0.9235284461534414	0.7565509128988349	-1.2	-1.2	-1.2	-1.2	0.2597460699904908	0.4932436178554913	0.7874649790899929	0.9909514099378983	0.4226859570274106	-1.2	0.6059854144524255	0.9952827395103271	0.6202252349287716	0.4494880583893719	0.7540882284446951	-1.2	-1.2	-1.2	-1.2	-1.2	-1.2	0.6006252954534838	0.8925177545931595	0.4680313814294796	0.8881185002542548	0.6127668333122916	1.0776464574152587	0.6369854121376021	0.6834433989647034	0.7469337463557284	-1.2	-1.2	-1.2	-1.2	-1.2	-1.2	-1.2	-1.2	0.9461372549251538	0.8208289904539121	0.755348379456946	0.5970076738804185	1.0025810075666628	0.5710439252037459	0.9186603320325837	-1.2	-1.2	-1.2	-1.2	-1.2	-1.2	-1.2	-1.2	-1.2	-1.2	0.9918276245796538	0.6611271513687957	0.5777174421037748
